{"layer_dims": [2, 10, 10, 2], "n_layers": 4, "activations": ["Sigmoid", "Sigmoid", "Sigmoid"], "cost_function": "QK", "learning_rate": 0.05, "parameters": {"W2": [[2.68783874423326, -2.2319813780507425], [-0.9714941678911764, 0.933286138686124], [-6.264446750231243, 2.4400002353531325], [-0.9698984881521535, 0.4204169186294228], [-1.0681109765323513, 0.9186830300589067], [0.5882163330938384, -0.29648280958700796], [-1.4300644694654656, 0.9865542528750026], [0.784778662837947, -0.7040145720048107], [-7.014039729093966, -4.9864566393529195], [2.3059009215782713, -1.8756669023759671]], "b2": [[-2.7299153401412712], [-0.9559352988644054], [-3.408244977370258], [-0.1325877153145366], [-0.8086820918277521], [-1.2687402203640357], [1.2981000939439238], [-0.5891407194681881], [3.7020729260633507], [-2.6113958668109403]], "W3": [[-1.5471202488361522, 0.6706167105221924, 1.5677203542898377, 0.2507299330950319, 1.5210574178130292, -0.1431691252737657, 0.601785154915019, -0.6268268954101575, -3.263449012316066, -0.4866934572694964], [0.3176443118006328, 0.710856607874277, 0.4430002411039862, 0.4592084061314318, 0.10322142440986141, 0.1331339295382195, 0.3881134470664127, 0.5913249898990506, -1.108244949246638, 0.16600976552188684], [0.3538873908034391, -0.48055015955815883, -0.7987596769654498, -0.11963937743050754, -0.7334546868429788, 0.31486533749931167, -0.6977607950756965, 0.11196721844629601, 1.667086735421866, 0.6518771054374107], [-0.006594713646085687, 0.06951241022861178, -0.9705962305152565, -0.4180159217353459, 0.6377523878140358, -0.24603804142595537, -0.2891237524842696, -0.158638653678906, 1.2815185397961584, -0.5281941555499674], [0.4890700904161021, -0.4076627291346159, -2.118412059521577, -0.9440405217725373, -0.8422460927410166, -0.03946835183788169, -0.5060830793332339, 0.29443326030290706, 2.536790593636886, 0.5602870399608691], [0.3446383652789268, 0.34586488393298787, -1.26912265993315, -0.7216908737972789, -0.12068707837272784, 0.3516245069211762, -0.6999946602357008, -0.5138989647277695, 1.8562252714649432, 0.8202911568804465], [2.325237670251986, -1.0596571602887424, -2.469103012491485, -1.3474528359520104, -0.16872582481431495, 0.2025991487297508, -1.6320927713510178, 0.9943138857437351, 5.028381138962482, 0.5422704010494321], [0.23698793333009724, 0.3203650502423702, 0.489653607440412, -0.9771729755607638, -0.29324033957211015, 0.025200661426272346, -0.7540230341110263, -0.09479168371476482, 0.039410231017526345, -0.2819693056551614], [-0.9719493062069254, 0.5186200615472657, 2.2287719836605966, 0.6260136959865517, 0.5541620083995877, -0.31192490228931197, 0.8239521001493949, -0.48128806339472757, -3.803180857441128, -1.7987646153572554], [-1.3808639990965244, 0.7910501680064131, 5.061979772561204, 0.6272910378221569, 1.1415959242442983, -0.16464696635203083, 2.628959265842691, -0.2338390174149354, -7.1744676874483115, -1.9499257492563664]], "b3": [[0.7073282550284352], [0.3770292621318947], [0.11939353062640294], [-0.2596360240299947], [0.21130062361898552], [0.04019252473229599], [-1.1877254335595333], [-0.8741303955814449], [1.1033168541675769], [1.107235966922946]], "W4": [[2.7045782860400602, 0.1330449415470146, -1.4741504925831905, -0.9209375968896418, -2.4060557542198886, -1.3031841666029589, -4.944828322323607, 0.03228094502469256, 3.390014863801863, 6.642067560774644], [-3.084449315199936, -0.35266768514405866, 1.69285895531177, 0.7607789281274067, 2.6055816770747873, 2.0927865265551007, 3.8323466979432492, 0.31501791744866137, -3.371067061120981, -6.771146797833057]], "b4": [[-0.4085063264334822], [0.6988353755739827]]}}